{"outSize":35,"weight":[0.1038524885856,0.054139864463695,0.17003423371988,0.046000292258787,-0.017879748617513,-0.17502516953158,0.15695059522415,-0.10020150275002,-0.15340954681923,-0.13653493801142,0.14578896295238,0.072711973249313,0.17186044155166,-0.17138681069305,-0.17939222478654,0.16964958205446,0.027136158333598,0.075341655427638,-0.17474844888751,0.10901459628609,0.082164140435482,-0.10854981980629,0.018763307298979,0.15726665278155,-0.11639146724207,0.12677713045468,-0.042381159070168,0.10442126339067,-0.086867788458293,0.010295035067096,0.12676068768362,0.084309893497659,0.15984342362954,0.036029493271571,-0.16505355125359,0.13251497275006,0.13172537256921,0.1418169763824,0.11848549467065,0.1717666405362,-0.092970227943985,0.060539493899331,0.14843575957635,0.12302070174604,0.10114934531397,-0.065716686134652,-0.035359351222125,0.068202007706376,0.13922725277812,-0.058484212501141,0.11238517859997,-0.072441394526078,-0.12400879326557,0.00076270526341884,-0.065557192652058,0.0083416821893528,0.044622196920538,-0.16068828662903,-0.083840730684264,0.093028440744672,0.15483880969314,0.080951267258962,-0.091018336675629,0.1219027715405,-0.089810652061889,-0.16715741134234,0.12969653144731,-0.09097339553239,0.098160863539895,-0.0750123006204,0.074997600807659,0.065534501241597,-0.1010693093202,0.14170356926033,-0.041129433813777,0.020515513001116,-0.062057110625782,-0.1323857047909,-0.02245256737858,-0.048505966548863,-0.16425600162718,-0.12450094865991,0.050304924097102,-0.052161458065517,0.14493277674554,0.029545325673776,0.10123033474942,0.15707438967527,-0.051024585231708,-0.080488740065204,-0.058945006270995,0.071452941200516,-0.17027412324592,-0.15587277597606,-0.089191837876855,0.016506148338665,0.06560732863072,0.0090619465012821,-0.17273486115997,0.12057251363372,-0.16583812570946,0.086873666593595,0.15445673407664,0.091394532065954,-0.097314262851107,-0.084448610231254,-0.10328145094558,0.014316819394844,-0.070108820418801,0.10187508748296,-0.019521372395861,-0.059276712817438,0.1417785946671,0.014571241128619,-0.13072793514658,-0.15963588312558,0.014910363360546,-0.057949831432409,0.15165586679515,0.14084073856853,-0.10071569569455,-0.038846604104986,-0.081325136335194,-0.029931910233136,0.0019631792652739,-0.13509978847141,-0.085114845009737,-0.044974084649464,0.051762216484059,-0.10665967425827,0.11651515146196,0.12098320195177,0.17383466760983,-0.11602485268622,0.033259875041543,0.15602665719976,0.17870981478612,-0.0087884366975608,-0.036014600846881,0.17607670557036,-0.079896902341955,0.044386949066461,-0.094552069590074,-0.083688849346323,-0.09054160754969,0.080763117166324,-0.15954500499434,-0.14079330726977,-0.018009355132105,0.020874440726045,-0.16395654641686,-0.16264332801855,0.13606667862585,0.080558533586135,0.048647134882135,0.0086138595164917,-0.10657617509665,-0.1651972560763,0.13600380416437,-0.13562796957645,-0.13985159642316,0.021156155815514,0.083581593930416,0.082979660263271,0.14250478211009,-0.12679637115894,0.068551379854669,0.10825601582888,0.014558669581733,0.11450075606895,-0.097953371460733,-0.020955835290582,0.13400605971052,-0.13676104419964,0.11144546462826,0.11472855653979,0.024945850773879,0.13386855819691,-0.14364327604568,0.14565600065758,-0.053756829885569,-0.12892952055829,0.02514642780808,0.15984192496974,0.1305653214006,-0.026203975213094,0.1548043922044,0.10051092167692,0.15214977024956,0.041790625471156,-0.085145135935931,-0.038972615224411,-0.025387952152089,0.11354374658131,-0.02060818836994,-0.09006861934423,-0.13581931194242,0.05946585423853,-0.084626784145653,0.17119477816911,0.15062275058078,0.046692048747758,-0.14814666543363,-0.17688858977443,0.057103782067098,-0.1494359567945,-0.076517871781965,-0.074642002517846,-0.080842916974178,-0.11203174328464,-0.043774496261124,0.013265054446423,0.044997043943585,0.12012770682289,-0.083275879877204,0.017537744231713,0.16106352029777,0.1061607166429,0.12018710682575,0.071735133261737,0.10699162384871,0.10266468582383,-0.11909199273081,0.021154849767667,0.013658050315716,-0.076357797536291,0.02251366760216,-0.067708198759782,-0.05592779027338,-0.073051216585062,0.14415844718792,-0.070516351924865,-0.06980761162849,0.064215802058992,0.11204590950457,0.094448495629992,0.10257233178158,-0.14926841576222,-0.14284174396023,0.0782646579208,-0.14456892533063,0.0014062279735386,-0.1596435875199,0.099829467376342,0.074687740872156,-0.12584159356121,-0.048773672150831,-0.052520234327033,-0.1599768059405,-0.023964777003379,0.027362539598114,0.16224322298692,-0.14843350251223,0.11031650034239,-0.077160973305036,-0.011482422412645,-0.12968612605304,0.067867747441632,-0.14001539452772,0.12919451888767,-0.075511871114777,0.16326243793778,-0.15781660380402,-0.098532171119749,0.12654802343419,-0.0079533075013986,-0.1358567520086,0.086733931099189,-0.16170379971707,0.044230365086462,0.058212893104255,0.054679995873088,-0.015992812404406,0.046219540943094,0.067018236832074,-0.14341618053624,0.088816302535814,0.092845675841255,0.070496067285595,0.12106169730085,-0.10846002968585,0.056878786805716,0.091158179641313,0.1342752746776,-0.11674244903412,-0.068714491899391,-0.095444708716399,0.13143810326371,0.086506652679494,-0.17529970420148,-0.15829394171085,-0.01977408688356,0.10428100776873,0.14012370174036,0.12569439897463,-0.077604984828404,-0.10453013765021,-0.016608074015514,0.12414946221284,0.12147124148887,0.065286255468201,-0.14463196170993,0.040986385778573,0.043074821187995,-0.11781649934393,-0.090831729653097,0.16071002660504,-0.087507493554423,-0.08953881638469,0.0025377632902112,0.040647297586187,0.12078703215997,0.10668095231687,-0.10332797036936,0.16525443915996,0.14783080324814,0.13202672487759,0.13077974382997,-0.066169407180607,-0.02932455591543,-0.011985269568304,0.11215216506123,0.16152369048331,-0.12823268105421,0.10280554729942,-0.047942956553351,-0.13586104291439,-0.029767948203509,-0.032318537960807,-0.071687294492107,-0.070788675028221,-0.13317993426571,0.078623721385717,0.11866113786644,0.088536752428067,0.016318464428834,-0.13179549753658,-0.045314288619535,-0.15412651046657,-0.081927894980309,-0.036237602244234,-0.10983689165527,-0.051401413071689,0.031366287150835,0.010237322237851,-0.049981986454263,-0.15020697640402,-0.13847824955908,0.14406046248704,-0.071881539502579,0.040346288015008,0.084592427459725,-0.17102418629068,-0.066583797779659,-0.13003735983805,-0.07827181910426,0.12370131726884,0.050137249582978,-0.024512035389421,0.17567512387499,-0.13666767532744,-0.15074878670714,0.076023082797674,-0.063232003619768,-0.074034198326205,-0.13606598562428,0.053697471616688,-0.043622582639982,0.13166551140165,0.073834615547691,-0.13442717341167,-0.004891084455979,-0.15356935159217,-0.12527053099789,0.0086798394379249,0.16324839700343,-0.056143212561998,-0.17645964948789,-0.071735382745647,-0.072424942220599,-0.15457847427909,-0.0078438651913367,0.018431061305262,0.1245924243649,0.13718478212359,-0.017730459637352,-0.090012538907523,-0.12657450661535,0.17343143453673,-0.048681344453683,0.011369102271224,-0.026006140661921,0.10159282048456,-0.04204928073695,0.0055893992856276,-0.081810838601983,0.16599490740316,-0.046702943408159,-0.17943327187319,0.16378748313964,-0.17759695580312,-0.17164330741703,0.052363533006797,0.074586557039853,0.055951674740485,-0.1685259194062,0.16189429101087,0.055234443293124,-0.15926719868127,-0.027990924079586,0.00066496026112001,0.0045032738040575,-0.10488121754639,0.024329883448649,-0.013700230241633,-0.084151530094375,0.0050491042020772,-0.071306277028606,-0.031073849104103,-0.14106612490827,-0.021253555738829,-0.083103172947286,0.0411669812676,-0.075246579894806,0.089558395895284,0.02945840474374,-0.0089483077932464,0.14545549111701,-0.14222933180162,0.1244398647452,0.01479994360548,-0.014540656224571,0.014950236793921,0.04413520265662,0.0059373141735661,-0.045224667776805,-0.033982216183657,0.075914119968421,-0.16535385862332,-0.091631435395894,-0.13142380724189,-0.16388379296129,0.010068145718521,-0.090941624847963,0.11274714721845,0.0882698438699,0.14425226509771,-0.078988935302265,-0.11652988054703,0.020290884229338,0.17609824615997,0.14089942282104,0.055274346417008,-0.13462187448508,0.028388922506893,-0.077696836724693,-0.077150793474997,0.018955578350607,-0.086847742932163,0.039928847406165,0.011375388964655,-0.054750594299532,-0.15973466169213,-0.13694097386856,0.13309889774362,-0.061101239915519,0.17470481697025,-0.080565760005079,-0.016057054469267,-0.055585648893064,0.17203146691152,0.11544389297997,0.1598105651016,0.13089409385568,0.1570370464587,0.017334915904225,-0.0095954361020318,0.121684406797,0.15131241317798,0.09719426109067,-0.17328831106254,0.024909522303624,0.14678874692883,-0.10664975110477,-0.14508179098396,-0.012008096551483,0.025999330830088,-0.13312193573849,0.11284290178577,0.076917127079601,0.15577873910922,-0.15427189828114,0.02354426221416,0.17804294621982,0.15818962297899,-0.068834550448153,-0.0073372518573588,-0.015187967359983,-0.17604422306644,0.13426196346068,0.067049377826807,-0.17168244109674,-0.15047961380859,-0.087749306356361,0.085174926388871,0.027777671121723,-0.10929292899934,-0.017041219983542,0.033930429161798,-0.13514155172658,-0.14329621632803,-0.13058802945447,-0.02331382781883,-0.11518119696137,-0.11002810396844,0.16577086508166,-0.055352473520139,0.17399760176241,-0.08972303261036,-0.050836473694914,0.12576460648998,-0.031350907049083,0.046138493548422,-0.16594696592946,-0.093291868237041,-0.044057138614457,0.17207660233942,-0.12890635669239,-0.064918635700449,-0.066530938554073,0.15529087754791,0.050193170025478,0.15238380614543,0.14903990966089,-0.020228128362623,0.021623738424757,0.14945024428553,-0.14343124800948,0.013675360216906,0.095373185284244,0.12850304491853,0.059206460808142,0.00030103323995032,-0.14706599163129,-0.017582618383128,0.11504509959974,-0.1339333773449,-0.028924999363673,0.0043065025912772,0.16294228810827,0.068100102687431,0.034143670159822,-0.14758272098163,-0.059360232386056,-0.092744430704323,-0.057851265968444,-0.053793865659017,0.17694127679507,0.0056186406732424,0.15530018430971,0.10400423911803,0.13364696078426,-0.094259048689382,0.0053061267407907,-0.11615816081273,-0.13956010905816,-0.082461100723067,-0.10269971895155,-0.15181159334671,0.010541868575895,0.057714015276903,0.12906940258164,0.022576158261541,-0.069167075030841,-0.16292272273203,0.012927176204999,-0.15777948205355,0.071451089098212,-0.099395726176338,-0.142877198275,-0.14852299890573,-0.022391397821389,0.030665688326522,-0.10608011803491,0.16218612362213,-0.040207684607158,-0.097940270419167,0.089105608944763,-0.047642331620623,-0.064577593621677,-0.10157148940122,-0.018848903948686,0.13993583650934,-0.062303585004878,-0.038392416849706,-0.0075515430630428,0.039993539512232,0.12086886062412,0.17264373287574,0.037233725924573,0.020090217203623,0.093287385722924,0.14179124800925,0.098125548143254,0.096278851184045,-0.14042334797355,0.024218824804013,0.071564082225859,-0.12039770929935,0.16135641725104,0.043660441885965,-0.076583142894772,-0.037566317666356,0.16229841496651,0.035879187119667,-0.0053890812697528,0.13874003746628,0.065608926649177,-0.1512097475802,0.038896387226587,0.061777863528497,0.010782308087256,-0.10924456458225,0.084648259834321,0.12754838390832,0.14184069742625,0.092929736780756,-0.027270779115138,0.12444056418668,-0.14168622038512,-0.15072010467199,-0.042565012235279,0.070763505254808,0.035301586539033,0.15249994086345,0.042489941414582,-0.064581648676101,0.067243937389403,-0.026805838961182,-0.024155274988001,-0.1494253113671,0.050069468409464,0.039307200913859,-0.011985501488814,-0.036363528557529,0.057140741314305,-0.1697110935125,-0.001745937575729,-0.0028465844760812,0.15449314885846,0.13013490879936,-0.1572683015666,-0.049671891001935,0.0089572500726954,0.0091207690028409,-0.15884705105074,-0.16082797871675,-0.166050964422,-0.047456080215116,0.027756872794833,0.012391392238816,0.075755313549291,0.14792694354116,0.061285564699726,-0.12042002025312,-0.17304555845146,0.032389681772626,-0.022277710772187,0.083348364612764,0.12851815320576,-0.16831189725507,-0.12884432234685,-0.14308445199373,-0.13892926603528,0.033131917897444,-0.011799240047079,0.032055816266196,0.086886255703881,-0.029378751297549,0.024538184029638,-0.1057200515326,0.054883261612861,-0.088582524571013,0.052322310537063,0.019076485797017,-0.1302070018711,0.022193415235848,0.015433372629854,0.035384400811704,0.065254625458241,0.075524871375884,0.075408800722452,-0.1352566268698,0.16838654931414,-0.15243733177658,0.040574078616889,-0.12610889763041,0.16684210114941,0.039077494395989,-0.095816374338699,-0.011781713446991,-0.041932637098515,-0.0056343652685318,-0.089534064648748,-0.13666794563653,-0.00037068290827533,0.074705052278781,-0.1349678634208,-0.12705017583194,0.097357002464025,-0.068690138238612,0.10707403357774,0.0037966004689081,-0.070953249351411,-0.10461973574415,0.0075045764416547,-0.07248134314753,-0.14645919766967,0.048643290672141,0.03283673410591,-0.05839853832157,0.078009570868721,-0.13249588794189,-0.11135125706191,-0.16777098996159,0.13376774160693,0.050077536115248,-0.14267988836766,0.033522426287542,0.16994375569961,-0.15432360944584,0.032202565495142,-0.15347517714538,0.044928211307882,-0.11200653436993,-0.077623871588337,0.045429507029911,0.062266388400871,0.018239608289878,-0.11602601454693,0.00017252326693976,0.15465241610774,0.078162299933416,-0.024138563496925,-0.14081975900408,-0.17803706666271,0.15914271114494,-0.0088553865368277,0.1266310637729,-0.1171026156478,-0.017354692961247,-0.160633059439,0.13105437601856,0.14673751532858,-0.16150968283578,0.14183908301529,-0.067635665933961,0.1598859876921,0.098648499369709,0.086360922294996,0.17612258158827,-0.088871813918373,-0.10628142127386,-0.083028149296862,0.044330977021021,0.17188844906864,-0.16188929104555,-0.062273682313451,-0.10312713189141,0.0099348060615281,-0.14039204631553,-0.037912937295392,-0.16314918002098,0.017711868026167,-0.0093780119204016,-0.11493970347877,-0.04602762584303,0.079075696739907,0.17272787092693,-0.14668812161264,0.089960248819719,0.069608590544222,-0.11672218154007,0.17080017307424,0.17855357755781,-0.053503725406764,0.018914105393341,-0.076627103247597,-0.022142570114019,0.17456658774645,-0.058294426252378,0.15048171581298,-0.045604258506812,-0.061513248081234,-0.11623256472606,0.045348555397584,0.056531654576317,0.018895916820359,0.12802366664648,-0.10191553473769,0.13341533433591,0.15131115772945,-0.10999012244774,-0.11898350796057,0.11781331468141,-0.074212891949962,-0.045741500082112,0.13321280993887,0.12434429342269,-0.17820455115758,0.13068185346963,-0.15085858806327,0.10893235742385,0.1760660474304,-0.093311313262175,-0.12654914974991,-0.15161656258319,0.044155756684986,0.026968999848881,-0.092378897886619,0.080873405363164,-0.15545778161423,0.1251726635536,0.12577758692954,0.009647667059724,-0.13649624324943,-0.019242946178418,0.11929648146864,0.11072357971636,0.11234544040477,0.099786469079639,0.12625820810482,0.15719573419943,-0.12663113661919,0.10278603971513,0.090955676069448,0.075766533968938,-0.07577345687561,0.17394030175669,0.16763878607111,-0.024552524712675,0.10635688367474,-0.16183612270413,-0.15690353936396,-0.093272277101149,-0.070840294863243,-0.023887531499272,0.010743341761652,-0.03755396766921,-0.082389286658466,0.0067235824102414,0.037169652635619,0.047150991168024,0.079384750849909,0.11762911794275,-0.025628476720484,-0.11653875248925,-0.0075915166077954,-0.090242567671958,-0.17877404422206,0.046702287122461,-0.099806918396689,0.046771279166925,-0.074044978908144,0.16730099414125,-0.075401360113668,-0.13135004514537,0.079670246753864,-0.035807714537735,-0.093884817639849,0.11130326741432,0.059150277165555,-0.14789435206052,-0.071305943240379,0.091854551875332,-0.077590877153135,0.077523791657515,0.14315556460961,-0.14700532672912,0.13479067849307,-0.13788185965356,0.16615561075308,-0.14700864186261,-0.032911739356581,-0.15303186815799,-0.049357853151846,-0.12762071542413,0.058822175046884,0.13442076235264,-0.091194239224285,-0.15321937710291,0.12515014510081,-0.077690831882008,-0.17211956860382,-0.0439685744193,0.10239449968439,0.12738750375351,0.17678867744862,0.17938588130479,-0.051998566483277,0.162035962661,0.079112223007496,0.13638507428992,0.023790008883066,0.15927817271151,-0.14143973162077,0.079487833369344,0.1335335477241,-0.094365904245225,-0.091334573630617,0.17103616193651,-0.0079975190944727,0.1580899929221,0.0056348981922565,-0.15788967197899,-0.071383717653719,-0.056092928465333,0.1254525629221,0.17901341286786,-0.16088341558031,-0.056359778060659,0.13174883869286,-0.013538444400851,0.0095587602946405,0.023504563745699,-0.072829159764066,0.026054338644891,-0.14025523512716,0.17821436341076,0.16237889673608,-0.097406069751639,0.13876301934191,0.12249822381138,0.14788594538113,0.11337079802919,-0.160715586341,-0.0088034621022759,-0.046015147298526,-0.14643023804917,-0.10695386404502,0.012650931361785,-0.075103619091153,-0.038781705419886,0.087375526017115,-0.12199572022928,0.10145089374697,0.11081250086671,-0.13334081600959,-0.12885707153498,-0.17207487175911,-0.11171617833877,0.087228979603618,0.01566991666282,0.030868232712383,0.15749847267821,0.17943884800165,0.14797143899222,0.046895555273376,-0.029990576671344,0.090027911231198,-0.00069074517169523,-0.12098738254268,0.13558737144375,-0.063626543813696,-0.021192924876194,0.047662398055562,-0.047164601130003,0.13327375635725,0.087934265848375,0.072543281396177,0.013051931039542,0.059778320415262,-0.041444078772046,-0.10920669228917,-0.076030242141159,-0.11670843173998,-0.056294720803151,0.019911942257858,-0.1038093058732,0.070286867040371,-0.092568515359476,0.064653707624674,0.12387057265619,0.089085167071249,0.034477655181003,-0.013947019591028,0.083469398097475,0.11973367212033,-0.1779516193019,-0.082766974268674,-0.046257864782813,0.017261529413549,0.0089618848865771,0.02422320110138,0.08789507939483,0.12502070510398,0.16707800537281,-0.084878764566885,0.15966377907315,0.015716038066512,-0.01121711722559,0.0013127430156283,-0.060638251640704,0.10509621270985,-0.036589503940244,-0.092361147729546,0.15631993394064,0.13772984249199,-0.065350253652713,0.16063163688727,0.018651521947776,0.0069158050370685,0.090002194817881,0.14769487533149,0.0029928743803095,-0.14694298376956,-0.066249272223946,-0.15079660582249,-0.038485869858957,0.11645351614014,-0.039124168879497,0.066812106669098,-0.0089683627701578,0.10015926595214,-0.10336409920231,0.02250128975448,0.12552057919426,0.17684855960862,-0.17599573169106,0.041673221086613,0.12893100065107,0.026797632420905,0.041931894835794,-0.0037134897929602,-0.022725532884184,-0.11267845542449,0.17281529366839,-0.16039460500997,0.11779096676086,-0.047194517788514,-0.16347928202541,-0.0026148559091068,0.031497742338686,0.039842993410836,0.029134937689856,0.058074965050937,0.1117492457039,0.052637397173014,-0.054409539675474,0.16022250451915,0.041393396488022,0.0582337480522,0.0024681576140204,0.096037405038983,-0.14627687929478,-0.17384464186446,0.17137341910267,0.099896021370036,0.034278824283262,-0.059429746063487,0.037765308892845,-0.091533145677302,-0.048785714453943,0.12596155434038,-0.074887517768053,0.17660018411698,0.019776368954614,-0.096043296974099,0.16708006622867,-0.055454657211691,0.073877524103786,0.081565667928949,0.17130997993608,0.092210865748226,0.093358721728515,0.031967446021153,-0.046836472833503,-0.03717406238708,-0.082237147556727,0.17824665723359,0.13583547896811,0.069992953166263,-0.090926522080655,0.066341510765932,-0.17241196943288],"bias":[0.037322668485538,0.031151682731191,-0.13516850209417,0.093291382483589,0.019378039248136,-0.055737246874825,-0.13573680218564,-0.0031401241661431,-0.11214797861585,0.15841294227387,-0.06524833157218,-0.071150720842024,0.11620624680812,-0.17293713348041,0.0062521064134858,-0.10020859794528,0.16472109491725,-0.17828803200308,0.1193780555144,-0.1425452727715,-0.13309936827545,-0.088546589353637,0.023732426022977,0.053281611128361,-0.017370595783224,0.01632747646007,0.095725848479079,-0.17461562325267,-0.063387849769714,0.0043396862930184,0.05237173804164,-0.060315529107693,-0.005119141603357,-0.045280423374254,0.037196668740505],"inSize":31,"out":[0.96992825353569,-0.026361082674599,-0.73789188076414,-0.22263541502781,0.68049367878504,-0.51908936754998,1.0323665150747,0.014126687878002,-1.1396376607893,1.1677315858701,-0.21191156376099,-0.3013814904987,0.12740668332659,-0.27036314410607,0.24990601692228,-0.99618249567589,-0.22013661314162,-1.1920907305878,0.72131078825844,-0.25663279647253,-0.063780308504237,-0.67453699067628,0.61228904732312,0.13170460829131,0.8672816976046,-0.37078300738697,-0.52003244179795,0.436828858361,0.55143083468955,-0.69241528280035,0.098318481811646,-0.68392485323033,1.101497025339,0.31595850719215,0.31130823344815],"inp":[1.8705973039534,-1.0056209535964,0.77105446650621,0.38830332008414,0.94356403857618,0.1047599944333,-0.13478539893751,0.71171024111398,-0.81147391808545,-1.6156942690832,-0.47341014653519,0.096424586828402,-0.48824405123854,-0.10271001417843,-0.087080176003008,1.1976705710916,-0.23247341587546,-0.17501937426952,-1.0681131375006,-0.71091058343259,2.5941183554968,-0.63124963822814,-2.401982422039,-1.618018815947,-1.3113495709979,-0.29108774921903,0.08733770255582,0.39949795556419,-1.3944930581325,1.0756827106459,-0.17223339224641]}