{"kW":3,"kH":3,"iW":7,"ip":1,"weight":[-0.22342890376846,-0.066323291199903,0.0032563889399171,0.22338402581712,0.29234740526105,-0.18197461481517,-0.020754067227244,-0.22310884452115,-0.15829613866905,0.32245998208721,-0.035314163969209,0.29161517461762,0.22165913460776,0.084445753755669,0.16475240591293,-0.14089800463989,-0.1786254728213,0.11766072005654,0.27751492382959,-0.11179466033354,-0.022676593468835,0.28037950753545,0.094356131895135,-0.20732023846358,-0.24589025772487,-0.068744887753079,0.15454253662998,-0.21384083339944,-0.23110087386643,-0.27264225746815,-0.2189043496425,0.040763514582068,0.2105382977364,-0.22145190276206,0.27597149539118,0.14488113236924,-0.206782694906,0.28349651241054,0.065456542962541,-0.05599376372993,0.26727191824466,-0.1634297943674,-0.053764726811399,0.31616757266844,-0.29872741286332],"out":[0.60870326679677,-0.43952677028209,0.0032742952777381,-0.25188868780048,0.68574987172613,0.78396407573878,0.6393789154532,0.91544991165672,1.3193657807809,0.40416061636417,-0.32454471344928,0.028987264704392,-0.04605863395259,-0.81655860508644,-0.4472058424588,1.1077131570675,1.0012857111588,0.37263867133452,0.88181778096587,0.44824427340772,0.081184847528797,-1.1957977163294,-1.0231136524725,-0.51392389760589,-0.21626936260084,-0.8382251846514,-0.022245038569381,-0.57860744343982,0.032957626071164,0.56142833932889,0.15874296306524,0.025709217042563,-0.22542991574484,1.4128889420609,0.35448527244706,-0.49942159207764,-0.022093364260694,-0.33503088333223,-0.25585572884465,0.55495511739414,0.051342988681444,0.40132058411891,-0.17248533148362,-0.30194360202166,0.057274975146327,0.30976087127424,0.88275883787918,0.011885337181409,-0.47709514405546,0.15720522743735,-0.36494553284429,-0.63308439594566,-0.60829135912306,-1.1160715854336,-0.58147719971343,0.48542474144515,-0.88547773125403,-1.2396699092891,0.62127204659885,0.1282511867722,-0.28731827245118,-0.639012928582,-0.75900402726117,-0.91096631891068,-0.55084852338691,-0.059348575517132,0.006457629760364,-0.10236431724627,-0.39886970300645,-0.70656674898839,0.23074776428447,0.17805837892142,-1.0055846597713,-0.51290607540853,-1.0779032347522,-0.32066688192228,0.7358204343731,1.5341942425521,0.37019373453208,-1.0266401333684,-0.1519974953888,0.61319473868975,0.73533315786384,-0.61737137659094,0.30217709419427,0.22518517329981,-0.51981381940945,-0.18846948642429,-0.23371047966732,-0.028414823895034,0.14227968733329,-0.076017229065715,1.7069855170276,0.59362638265215,0.10976187716605,-0.71047035241454,0.079139596728582,0.84754271109451,0.66241794106498,-0.53818238064202,-0.00045334964164101,-1.5919132543952,0.28751288509883,0.099237749054998,0.48162747696548,-0.71952258983092,-0.55636332492279,0.4969109894135,-0.22304757808971,-0.039404416130117,0.27819328715236,-0.71357981000324,0.50746739188085,0.033447247430898,-0.74999096755919,0.74635156941534,-1.1926015239898,-0.28799516615717,0.19157155715628,-0.41318705509837,0.17048830786724,-0.87527330780893,-0.56588188797263,1.0433983885785,-0.7460751022962],"inp":[-0.80189689517993,-0.16434255965982,-1.6344805649633,-0.56791868969838,-0.27572123476244,0.42367316438359,2.1875451124723,1.0607302616149,-1.7770269024038,-1.7145557010664,0.12974967963904,-0.65017841049868,1.177406056538,-1.1230940748441,0.66448921969288,-0.033783295310174,-1.2441678345244,0.90393197664505,1.2627801624833,-0.46486367397514,0.24985738816658,0.21635860616618,-0.80809660744144,-1.0366512039603,-1.3398586237306,-1.6569083740788,-0.28057690471922,0.38461253808418,0.78352056492885,1.8657352088202,-0.33927669632123,0.41098230083831,0.41446624307093,-0.63482951479749,0.07214265946331,0.30662070729249,0.59685973748169,-1.6382885901294,0.27420952143179,0.55609283446166,-0.44802099088794,0.80810373836153,0.81269470453542,0.26855881083578,1.8133951324821,1.2692665232152,3.5945987832881,0.46360652671387,0.23990734097693],"iH":7,"op":5,"bias":[0.2038190200304,0.32258952160676,-0.32969413961594,0.026594679647436,-0.0838193524008]}